
1.796370516810310569e-01 -1.793731648572594872e-01 -7.350293099067566061e-02 1.043923213237036018e-01 -6.642425939654778011e-02 -1.459802589067715206e-01 1.486161559605291838e-01 -2.658030328025168809e-01 -1.588460111787869944e-01 2.589156834539395047e-01 -2.342698752595059331e-01 -3.699089849316877787e-02 -2.338284615987774873e-01 1.797528148886528565e-01 -2.557626135579278981e-01 7.017353258240961733e-02 -8.540127708206995960e-02 6.667521087444565342e-02 2.145731964998864871e-02 1.010487829128912385e-01 -2.247823749684136063e-01 2.224928294702141207e-01 7.368671629300675707e-02 -1.097996869992251406e-01 -6.912614697452387769e-02 -2.540485858249882933e-01 -1.437926946266791239e-01 2.171034697690521209e-01 3.198298850370352026e-02 2.122493692624348449e-01
-2.080377444728143815e-02 -1.811953701474243450e-01 -2.687873304444768907e-01 2.034572177436129725e-01 -1.589395535242471846e-01 -6.432336540886061937e-02 1.090386279733172870e-02 -9.573854541739777735e-02 2.372831895492097665e-01 -1.888594923722882457e-01 1.553740575012077518e-01 -6.319898164723497004e-03 -6.911811200273393352e-02 2.467431572902706038e-01 -2.739876451102999932e-01 -9.378808410539547780e-02 2.519381484159609053e-01 2.489118538735275721e-01 4.729498759032320886e-03 3.916437264787672734e-03 -1.076576056487218158e-01 9.752601113268899446e-02 9.689707635031466482e-02 7.923252364250617241e-02 2.627473445138160391e-01 1.228549322377022607e-01 1.570505235098802466e-01 -9.233147175404933515e-02 1.910099561593615325e-01 6.463265580729778657e-03
1.800119122519820980e-01 -2.527069659838443449e-01 1.061468588520549927e-01 1.122625033982219411e-01 -1.751923506334865932e-01 -2.476044073363796727e-01 -1.918766006610315711e-01 -2.931685324345283464e-02 -1.177315851741163842e-02 2.245188127300335734e-01 1.384411033586300799e-01 -2.169560725872451690e-01 3.973602426744152205e-02 2.631652169443518541e-01 -2.673748674238875522e-01 2.235354047783042197e-01 -4.693159075188841484e-02 1.094766721692772143e-01 1.082135985793570704e-01 -1.253217684863019155e-01 2.608323551051018874e-01 3.136453869456810178e-02 1.514639848331066629e-01 -2.764882701840586793e-02 1.009871413394092254e-01 -1.175022696146045265e-01 -2.353277034780551502e-02 1.015170817878161130e-01 2.751816986850578739e-01 -1.535362989593942185e-01
-1.356069308431004650e-01 -1.386863635165585806e-01 1.557678426048900999e-01 1.872653501378382657e-01 3.442744200832929535e-01 7.111309649032110380e-02 -2.289367224171858783e-01 -5.362432562547246595e-02 2.460253330759958890e-01 -4.865294240557386379e-02 -8.845171419787788147e-02 -2.075849735399312446e-01 1.802691670636140941e-01 2.376157569142092196e-01 -1.497657627190023544e-01 -6.132819768375225022e-02 1.352671524647250656e-01 -1.559732761619309072e-01 1.232161744504115530e-01 1.974095838501320199e-01 -4.386118522535543268e-02 -1.063492010086709710e-01 1.912415685515183872e-01 4.618897056525101547e-02 -1.576999471260902286e-01 -7.885744330880430086e-02 -2.373180251318994238e-01 2.677340514950249384e-01 -2.403587471871188597e-01 -1.339928375888674583e-01
-5.642432397101608543e-02 2.872756865175115637e-01 -2.731833191935898464e-01 -1.901637585518546614e-01 2.875987936033896353e-01 -2.348662315974664183e-01 2.114161127570976170e-02 1.121404112782974360e-01 4.638608615606313462e-02 -1.585455136801940390e-01 -2.962450128280402217e-01 7.486601809473940848e-03 -2.745749990233801174e-01 1.258996850083556607e-01 -1.160475731105795744e-01 -1.811281604475227236e-01 2.657619964391609302e-01 6.514599232464554808e-03 -2.151287174792269885e-01 -1.735530188065716461e-01 -2.137894083346920937e-01 2.277256968106843582e-01 3.739324024010789310e-02 -8.125061944496110578e-02 9.737532883892621727e-02 -1.260274217987748802e-01 -1.723349999173769409e-01 -1.593220869764938596e-01 -1.839443911985810809e-02 -1.034037673478116204e-01
-1.794955353333170245e-01 2.542672426957297005e-01 -9.124631254658790991e-02 1.537585632005848413e-01 1.640502159082601885e-01 2.598300830805064798e-01 1.849309797046234244e-02 1.678370482740178804e-01 -2.628708448416317012e-01 1.570010499958404970e-01 -1.513936112288837843e-01 -2.508062050004006838e-01 -2.731121281126173694e-01 -1.236018527465029132e-02 1.445571531355371309e-01 2.723733990365784785e-01 6.891003512357384009e-02 1.840826139290084595e-02 -1.142909385892260377e-01 -2.416282181530014228e-01 2.133668978596247601e-01 2.241160180993801154e-01 5.504501266642883306e-02 -2.237724295288049947e-01 1.804625242650534020e-02 2.502703952781414887e-01 -1.917162513029558313e-01 2.326923908609015712e-01 1.645016545685252241e-01 2.425370090718474148e-01
-1.876359096960370232e-01 2.731716155152107972e-01 -9.829652666149345241e-02 2.578088122137861538e-01 -2.476573895673862269e-01 2.256017437938265865e-03 -2.111739606754058640e-01 -3.989047923281596048e-02 4.596729333202689144e-02 -6.416331588686428888e-02 -2.672591369468454991e-01 6.797067180605860515e-02 -3.519730963978913441e-02 1.489833372962201356e-02 1.222845029822819118e-01 -2.679448770837054017e-01 2.157748461600450269e-03 1.275513226377532061e-01 -5.325633339192601540e-02 2.105105890914018771e-02 -2.928008748162049327e-02 -7.742917140176694413e-02 4.963530575582215248e-02 -1.149606528245980808e-01 -1.908980721427696314e-01 1.711995847736448306e-01 5.873883929313535729e-03 1.462457380445639221e-01 2.209208555925140094e-01 -2.239337291460499479e-01
2.075181521648270799e-01 6.711982099459241902e-02 -5.293131127405442671e-02 -8.908163325963489032e-02 1.314362421821091975e-01 -2.175982944604901159e-01 -2.276262965655591330e-01 8.001968050442834213e-02 -2.274666176876252166e-01 7.467168899461992804e-02 -5.513997423154411159e-02 -1.188604093959010344e-01 1.246813620588805571e-01 -1.986079184030690170e-01 3.596603387111053235e-02 -7.240166281385692661e-03 8.696830301001501340e-02 6.534407819958677754e-02 1.367748677797508139e-01 -2.771398115749904578e-01 -1.037995606353023237e-01 -1.198534685571916725e-01 1.429255627928953665e-01 2.398137608742705734e-02 1.234487596635147066e-01 2.511088664771072287e-01 7.660468251527920158e-02 -4.488059658423882575e-02 1.861403045952259305e-01 -2.663096847211040563e-01
1.455680697960503867e-01 1.112384929383849058e-01 -2.180779328682873608e-01 1.907139621844110566e-01 1.342942753066089512e-01 -8.603497715878184737e-02 -1.972988762760979550e-02 -2.501013855053748625e-01 9.020360024104495666e-02 -7.516148163699419571e-02 5.557316473500144294e-02 1.226645852898290839e-01 1.183095593527902639e-01 -1.557512403051656558e-01 2.262498943688232567e-01 9.043350675351483070e-02 -1.741138078360423280e-01 2.334729339308765639e-01 2.093217686742159800e-01 -1.880079348429572472e-01 1.812711269693186300e-01 2.733181472366909559e-01 2.466795540324984992e-01 -1.251717354933637172e-01 7.283562417388622645e-02 2.425881415197461699e-01 -2.030712949919013521e-01 -2.245739700127946104e-01 1.822642423461012795e-02 1.456767430793932255e-02
2.574930119620721936e-01 2.363925408029826369e-01 -1.276108247044049349e-01 1.954692318729514822e-01 -9.110111750219569704e-02 -2.225701532527506188e-01 -3.442347270165183742e-02 6.997020959333016821e-02 1.855472756570060444e-01 5.408213646769462896e-02 8.975261974021275790e-02 1.417308970191879791e-01 -2.084964503709808292e-01 -1.442980881104568569e-01 1.523363886371371587e-02 -9.336113276843696629e-02 -5.879330596583010049e-02 -1.770265731727220515e-01 -2.075138348797131438e-01 2.462518269353287242e-02 -1.267859862816423933e-01 5.842112558456024479e-02 -8.504602789850217170e-02 1.016789547645772368e-01 2.772610865285075610e-01 -8.304035519246591446e-02 -5.869187246594637780e-02 2.482103541279646053e-01 -2.292293723083866641e-01 -9.822889095248153735e-02
-1.957264639443919430e-01 -1.400126280822931030e-02 -1.401048595723449197e-01 1.877774183365166216e-01 1.705137492451363201e-01 -1.772575342416912447e-01 -2.296154764001628046e-01 3.301713672046692472e-02 1.890841233400205879e-01 -3.140696584952929610e-02 1.428078233369107219e-01 -1.969052403733108705e-02 5.870095898023544589e-02 -1.247397708955346879e-01 -2.561095101378264571e-01 -1.008887977869233205e-01 -1.227152393931870700e-01 -1.827335565603601941e-01 2.501178077672639444e-01 1.721684773890303499e-01 -1.930054661812228012e-01 -8.329259068145802858e-02 1.110696092623126852e-01 5.043942016497356823e-02 -1.093958550100772170e-01 2.691313404888374256e-02 1.759386960646288911e-01 2.303709924343743613e-03 -9.063344382487126261e-02 1.578648868863349528e-02
-1.970135223163597404e-01 1.386693161695269905e-01 1.695610456849500625e-01 1.955498053587946261e-01 -5.743140886265908629e-02 -2.618173715742895813e-01 7.803351155128773753e-02 -7.060773660072898472e-02 1.009255862757612310e-01 1.301144223540980360e-01 -7.425434172799504073e-02 1.103827620801825227e-01 2.413270395334348450e-01 2.804331594386360038e-01 1.861946487251333326e-01 9.286461848979908618e-02 -2.888466414810307581e-02 2.516717393980076878e-01 7.421967122237912995e-02 -1.312997517725204288e-01 8.586253805766180802e-02 -1.297037309376523895e-01 -2.037910232942030386e-01 3.161184878921839692e-02 1.600858650281957937e-02 1.081516890710251394e-01 -2.132575565186510258e-01 2.292586584603928390e-01 2.445621640814642506e-01 1.752071883950096498e-01
-5.785770192086304997e-02 -4.475013502577832730e-02 -2.047332369662268059e-01 2.058553167026150044e-01 2.350139701425728311e-01 -2.695235283638887092e-01 -2.420781520275583909e-01 -1.480646717781406996e-01 -1.039877560597984307e-01 8.483111084233342300e-03 2.651873750361740112e-01 -8.543915754895974046e-02 -2.112943316993087794e-01 1.121866239455053676e-01 9.274704462713502517e-02 1.701127249367821170e-01 -2.692543152526817862e-01 1.522012167624356557e-03 -8.834710716771503047e-02 -2.236986236343742884e-01 -1.231157608713164126e-01 -1.362115169323028369e-02 -1.622353765598075204e-01 -9.889879980712923402e-02 1.733460211643183813e-01 4.879531517011568426e-02 1.626784756933131668e-02 9.877685665848337515e-02 2.298935119760266432e-01 2.537179030186230699e-01

1.579956679923846530e-01 1.779877541972597899e-01 -2.605251873758515288e-02 1.563420942760083421e-01 7.621064143699728122e-02 -1.568801876506923099e-01 9.283228791923646417e-02 -1.221744892077861189e-01 -1.241671634042354200e-01 -1.770306301742780586e-01 -1.369830077478942365e-01 -1.245822583420002350e-01 5.798895710454239627e-02 -1.204655608737364575e-01 -1.736605925280387541e-01 1.403977580680623380e-02 -6.333151129626114761e-02 -1.053528321758011033e-01 -1.211171981158108563e-01 1.248117430995673988e-01 -4.339363214300019297e-03 -1.619018727390632018e-01 -1.132702096262334576e-02 8.756844017711877537e-02 -1.902951450191240831e-02 7.469291602762603149e-03 1.506926768724665133e-01 1.730973912375088630e-01 -4.517045049570936333e-02 -3.370787037082700194e-02
4.109551404898725141e-02 1.783279227559557700e-01 1.000486464925502972e-01 -5.269824484864276543e-02 1.318749275457662198e-02 -1.125689347445079369e-01 -1.431220832459097203e-01 -1.257148329223276850e-01 -1.464307344510863140e-01 -8.389710405095057721e-02 -7.485778494289727081e-02 8.684422159336852021e-02 -1.646773001285765647e-01 1.148482669032348524e-01 2.534181852671920504e-02 -1.153447639972432215e-01 7.123967790341464990e-02 8.261275479797974136e-03 5.527590756403667066e-02 1.736195638480234893e-01 -8.430422598339671128e-03 -3.914399211873381690e-02 -8.707353261123243482e-02 6.003072691508399422e-02 7.334165489670596561e-02 -1.124574753495124341e-01 -9.953847431588221106e-02 1.538919885980790936e-01 -2.127405456012854135e-02 1.738130713302952490e-01
-1.110492216084803391e-01 6.230041751278969642e-02 -5.285912617184466283e-02 -6.270783587595867015e-02 -1.750256843383381222e-01 -4.007310200677145773e-02 5.437084165264555180e-02 -7.972391826992043795e-02 1.396828708022565257e-01 1.292246909270335642e-01 1.115890543123801981e-01 1.527888791224282505e-01 4.350353979689266376e-02 9.784825776453140445e-02 -1.702247948098183639e-01 -1.411538854036105961e-01 3.144628664934751711e-02 -3.359825945265455110e-02 5.314941368591927923e-02 -4.693775709229934534e-02 1.688627065957839513e-01 -1.654946175518259843e-01 1.264136902707811982e-01 7.596079174588135641e-02 1.589432241993354034e-01 7.308506001214521743e-03 -1.571471664854091621e-01 1.623357815313341834e-01 -8.575816054267131061e-02 3.728165333808189374e-02
-1.290115208078750353e-01 -6.123216344508846526e-02 6.806365239060278849e-02 -1.168943118527113606e-01 -1.105746656527853006e-01 1.154371418668146410e-01 1.831327090765040022e-01 -1.315419690101081174e-01 -9.373040813716981834e-02 -6.575608065482267672e-02 5.564085057724148242e-02 1.525016194446746631e-01 -7.582163529286936599e-02 1.157565722298214833e-01 1.283060001240921011e-01 1.068142641100508217e-01 -1.310890857371783402e-01 -9.456447869177928012e-02 -7.761951045262002746e-02 -1.737417547422707154e-01 -1.570532659492898386e-01 -7.968435323845950158e-02 -1.058007521157604547e-01 1.008302555696777431e-01 1.035597587281322923e-01 -7.459361230644605267e-02 1.710448201707666371e-01 1.887560398954353513e-01 -1.188976919305349961e-01 -1.240257673093624613e-01
-5.162295087197035781e-02 -6.641877203328530599e-02 -5.316235323965219639e-02 -1.019708113054260123e-01 -1.287487204707204180e-01 2.537550989156483333e-02 1.852074263065675852e-01 4.212300579503990006e-02 -1.509132347044783995e-01 -1.632688572202320443e-01 1.403934892779890586e-01 -1.419612633456672490e-02 -2.025744934783401119e-01 -3.090194094237047953e-02 1.928782986639041019e-02 -1.688641788323727855e-01 -1.684225670191666080e-01 1.220852963731723084e-01 1.279723523199441937e-01 1.691568387973182708e-01 8.115213555123604663e-03 1.524283455730652548e-01 6.186538634952210014e-02 1.746181173756393146e-01 4.020574965764969061e-02 1.616819686396319122e-01 -1.457132137878721923e-01 1.238100731246923047e-01 -7.929959352205992462e-02 -1.360550893016308494e-01
-3.137606530478390804e-02 9.886023942297589295e-02 -5.847945663023587648e-03 1.472036838882623787e-02 1.416594823128301817e-01 -3.564817051032285241e-03 7.052490825550558617e-02 2.363638108435357071e-02 2.875301491375581442e-02 -1.685603540454381488e-01 -1.762554801247337710e-01 -1.640752308711319607e-01 8.963690974775674614e-02 -1.476595443898403859e-01 -1.087095224945059807e-01 -1.790833809861079040e-01 1.635966388426632612e-01 -1.205577243512398339e-01 9.482865939460420959e-03 -1.045088108406932587e-01 -1.246451190819321680e-01 1.657520836444275336e-01 -4.494460404105467266e-02 3.705668215428409556e-03 -1.574950469749942794e-01 1.565385799928676602e-01 1.735934203832840972e-01 5.192176331216154933e-02 -3.392625864733971736e-03 1.762537773951070585e-01
1.529684605407904963e-01 1.111639700226479816e-01 1.823273389956000523e-01 -4.026740817255725774e-02 4.711637994022063042e-02 1.152398649970369227e-01 -1.811619850300042467e-01 1.247348708638361947e-01 -6.779442175258358627e-02 -1.531220040606389166e-01 -9.707661313556589788e-02 1.759709086770823161e-01 -7.848006607954041702e-02 -2.620713074054756980e-02 -1.581938427976932737e-01 1.241915376631494428e-01 1.189279689799080664e-01 2.255423494951019209e-02 9.306383648654634189e-02 1.484433014117508554e-01 1.598383433851703617e-01 -1.257633610756679621e-01 -1.115905632169917894e-01 8.447014872243079064e-02 -2.976145127214163688e-02 -9.037775559054619934e-03 -3.312272956476364910e-02 -1.797663172738586390e-01 1.402740234604250014e-01 -5.717024208547610842e-02
-8.813324459970829639e-02 -1.052297103417935559e-01 -1.666600847904370908e-01 -1.673091326054058220e-02 -9.771369569490315210e-02 1.923396507965446575e-02 9.784659158023033265e-03 6.698295114679833628e-02 -1.061153987251394898e-01 -1.521175895417618273e-01 6.245702114704096419e-02 9.098860035076375419e-02 -1.647309372293444540e-01 -1.735940085373498531e-01 6.909216927569080714e-03 -5.165476887776615511e-02 3.190488449585246467e-02 9.704397143064810716e-02 1.698683196956398134e-01 -4.120919339904752232e-02 1.521131748412290208e-01 1.263361561687352183e-02 2.648441269844136262e-03 -1.811262138054462595e-02 -1.533623711590153538e-01 1.407885256421663109e-02 -9.450883557058878393e-02 -1.174792504651413078e-01 1.867068113439377536e-02 1.487700939862411642e-01
1.783440208232563440e-01 -1.421020769721568489e-01 -1.273545069548507880e-01 -1.136046297564863132e-02 1.071635162802194868e-01 -3.946528880607105133e-02 1.362593529107521406e-01 -1.367288087853369138e-01 7.347789284994488135e-02 -1.093755770329386985e-02 5.807269786229144609e-02 1.538472002589920673e-01 4.478125663594561406e-02 4.824729228904495182e-02 7.832358360298701666e-03 6.732590683931095887e-02 -1.362361724658400775e-01 -1.792787349693784615e-01 1.347149989991293373e-01 -1.755786136738033409e-01 -4.066785663657301181e-02 9.721942238503779310e-02 -1.686157568291435718e-02 1.701105042005000567e-01 1.289591031403264365e-01 -7.732932249347733433e-02 7.198588239798958677e-02 1.719783888534514305e-01 1.223828024532924580e-01 1.352081653536604255e-01
3.914086648106346322e-02 1.670056113723061147e-02 1.250520243424987077e-01 -1.062723240694257026e-01 1.749730657709656356e-01 1.687325657711314653e-01 1.332026387875323570e-01 1.399491263182717493e-01 -1.648548505260233610e-01 -5.480084014183088381e-02 5.546374094548186390e-02 -1.379683349979344553e-01 -8.159097515493211883e-02 2.992779822118523878e-02 -1.330615048587691640e-01 -4.073349442801935810e-02 1.650426307849471863e-01 -1.679447287615369877e-01 -1.614961832056484303e-01 1.388587845887773453e-01 -1.130727614315118063e-01 -1.753292712130301301e-01 4.514658877606157056e-02 -1.503296542377818845e-01 1.570941870919793371e-01 -5.173835297679595796e-02 -1.695862058943402861e-01 -1.812343595329355128e-01 -3.507619604458073019e-03 -7.726362746191467457e-02
-1.103429865132141419e-01 -6.165985966192784329e-02 -9.203654040464041841e-02 -9.017244040888187928e-02 -1.263055583481357824e-01 4.394460709434728357e-02 1.335133686579602907e-01 1.725860925452749883e-01 -4.966119641333906209e-02 -1.262090269203533233e-01 -1.973516591441566437e-01 -8.505182443881763310e-02 2.152807700231074983e-01 2.074905752836495587e-01 -1.833770419774943539e-01 -2.084703721199279366e-02 1.911593781751624865e-01 -5.971985515250036874e-02 -6.258895759220640953e-02 1.982613248364289635e-02 1.018736649636911296e-01 1.393969342033810621e-01 -5.457065302002573649e-03 7.153977283432303401e-03 1.260751887391339809e-01 -6.762540169062908335e-02 1.774233647738473474e-01 -7.749570677901863880e-03 -6.079784180013855788e-02 -1.478485337473969263e-01
1.930568605684472756e-03 -5.938491457723688721e-02 -1.387181468122618277e-01 -6.023052549880410916e-02 -1.240443546909600347e-01 1.519530073387654889e-01 1.407115317980498770e-01 -9.770505357060915719e-02 -7.604512112206586461e-02 1.568708732024496899e-01 -1.106643678348191578e-01 1.699716686723563019e-01 -8.181649716095156302e-03 -9.107715200328729555e-02 1.381675650847893032e-02 -9.710185231583194632e-02 3.026501363445681034e-02 -1.617877726508733238e-01 -1.105118297912703329e-01 1.305806523247247108e-01 2.032520276950964058e-02 1.561122926968162572e-01 1.496812135103247308e-02 -1.079188977437221530e-01 8.895817749638416927e-02 1.171272345060628828e-01 -1.713951942008546114e-01 5.314649207854389018e-02 -1.426586138346358501e-02 -1.566476202258038353e-01
-1.816439191920041496e-01 -1.260000338492148764e-01 4.694807689624928837e-02 7.654415787208070088e-02 1.027533156228929295e-01 -1.102412191609093567e-01 1.785369447135320420e-01 -1.722267507988642365e-02 1.410777767979123389e-02 -1.175223872378144269e-01 -1.101740421229753797e-01 1.191386577839062405e-01 4.653134048064330730e-02 1.401999022191699751e-01 1.657346988375167085e-01 -1.858926936114015105e-02 -1.206698747076007799e-01 1.799828107274805133e-01 -8.737825763585274630e-02 -3.814298481787958828e-02 -1.733136066672184283e-01 8.204548001454609052e-02 -1.265819611878907236e-01 -6.096135273211921585e-02 1.064115992425484492e-01 -9.897411135218628364e-02 -1.048699369812428756e-01 4.816612603270550332e-03 3.103278779272383714e-02 1.115951909314104457e-01
-3.909414445074966410e-02 -2.896741976171646540e-02 -1.649709747868874088e-01 -9.192460544491533325e-02 -8.254662347845131976e-02 -1.533483262102246225e-01 4.122674682154059411e-02 -1.764124459401596734e-01 8.137145862159698984e-02 -7.595210425767544293e-02 1.869700318106402581e-01 -4.859975604543366468e-02 -5.856195048686053256e-02 -1.741854823183513201e-01 8.375450555770846961e-02 -1.300839365634495585e-02 2.885789225979786335e-02 2.538619088239897625e-02 1.312734979964301774e-01 1.574387763125661421e-01 6.022123204383696138e-02 1.459634290750478347e-01 -6.842686600178003731e-02 -1.786756052417603213e-01 -7.806564000233699729e-02 1.328494243983733593e-02 -1.872397603475892342e-03 1.371860677026632003e-01 1.693300398560253217e-02 -1.385704610859999908e-01
-2.515921290685296796e-02 -8.917104590735601410e-02 1.981069463777267853e-04 -1.381622060338911773e-01 1.668348096672758463e-01 1.648540052330026706e-01 -8.445910754222885064e-02 5.295868366019219897e-02 1.244915533547946845e-01 7.372680079202717507e-02 -3.834186558337918799e-02 -5.725125875392846758e-02 9.521707979200029481e-02 1.732043698324039205e-01 9.233539455554078124e-02 -8.755450228478789398e-02 1.234504097514305641e-02 6.609434086899007577e-02 4.573745484945292844e-02 1.343675097025505694e-01 1.369779774482110801e-01 -2.265978518639928663e-02 9.345092762333619130e-02 -2.294383645573028555e-02 -7.893452097910752530e-02 -1.456176849756160574e-01 6.051506198137938247e-02 -3.557729428788660429e-04 -8.517616059970483863e-03 -5.739958919808514637e-02
-1.734203458742216986e-01 2.276452801987930211e-04 -1.729999207986352705e-01 8.079324001644615227e-02 2.953708013553056275e-02 1.204323813755189404e-01 -7.302508962761970757e-02 -6.327972102759071849e-02 -7.144443485540422079e-02 -1.649946613168403464e-01 6.039440026174711790e-02 9.289665981881475854e-02 -1.035967844082852363e-01 1.935029928499960306e-01 -6.346526823937086170e-02 -6.812094639204821500e-02 1.136757744138503223e-01 1.797141720623724737e-01 -4.084901151622130633e-02 4.196608906611697803e-02 3.554819697431968462e-02 9.144489292629834343e-02 -1.618144891607060099e-01 -6.343105384452302599e-04 -1.668135093507116806e-01 -1.635490016753864961e-01 -1.615002612644991786e-01 -1.873787044177913641e-01 8.932630808530872893e-03 1.334639188745167238e-01
-1.229063026317748775e-01 1.505471784272721381e-01 -9.366507563251842694e-02 7.624824864138797509e-02 -1.423202023797674742e-01 4.288549819019130127e-02 1.525461256149284184e-01 -6.812418000618186698e-02 4.488348641373790526e-02 2.899506866515664041e-02 -8.102846671376197352e-02 -5.877818752601621927e-02 -7.217306246903333611e-02 -5.630884284017262376e-02 -6.657779158488727478e-02 -1.773461572838304634e-01 -1.318902861117563496e-01 -1.702293959705246662e-01 -3.339800008833870154e-02 1.324738439415586166e-01 -6.697328165900721941e-02 4.666252612210917972e-02 1.367067064653396391e-01 9.919300803183747628e-02 1.816200923811204238e-01 -1.795213533445989829e-01 -5.446626134278247100e-02 1.595568390662380487e-01 -1.527840221035670354e-01 2.537802169035729277e-02
-5.216289077656383055e-02 -1.560430661438777789e-01 6.558613093743727307e-02 -3.260755858201170448e-02 -5.791374188725463557e-02 -7.869428607649241181e-02 -1.510758341529548909e-01 -1.254662580931101279e-01 7.113679966441040226e-02 3.645817414923076955e-02 4.587025359428541227e-02 8.532360101990760226e-02 -1.587396927841680516e-01 1.439026703532386986e-01 -1.298319106832110381e-01 -1.805734012199872451e-01 1.034264865324759086e-01 -5.424405390431198681e-02 1.832790350407466629e-01 -4.351176149230286117e-02 -1.387845518848159487e-01 -3.493910916085372215e-02 7.508785450402036266e-02 9.079784671274718222e-02 -7.856022181154076467e-02 -6.336781174900472241e-03 9.442222796870559931e-02 -1.229777545024566682e-01 -1.835589642141094435e-02 9.307391327778485879e-02
-1.439141450911717024e-01 3.460341872055769635e-03 -8.594062695068083180e-02 1.297295143596618461e-01 -1.629296271662798029e-02 1.401380207377939391e-01 1.443536236765470826e-01 1.021676427490804742e-02 -1.122990241554177732e-01 6.310340940464385928e-02 -9.127126255401221688e-02 -1.113694856181129123e-01 9.673275060963322514e-02 -1.302980463183134874e-01 7.592882172248860417e-02 9.551568290341820588e-02 -9.505222338390599199e-03 8.901738147155296987e-02 4.999699269104478094e-02 1.667958103439098547e-02 8.326403687705445644e-02 -1.809687147501951032e-01 -1.656158651401007376e-01 8.506533826030368561e-02 -1.090665283623558530e-02 -9.474961689118915897e-02 -1.323782735341644812e-01 -1.390698150278651957e-01 -1.667762415084147465e-01 -2.387609481466113417e-02
-6.698232911743774373e-03 8.615161151018220498e-02 -1.580428022354902484e-01 5.177402191073555288e-02 -1.525699838792547447e-01 -1.054684086773726021e-01 -1.809615490610037569e-01 -1.433736498370337918e-02 -8.442742573291325825e-02 -9.308902574423956466e-02 5.731572593706920488e-02 -9.648009248056917120e-02 -1.121895860009530926e-01 -4.406267576404142294e-02 4.535802704200402047e-02 -4.361474773114275977e-02 1.775073297969354327e-02 1.796825032328715210e-01 -1.130002403906012753e-01 7.261340622913105280e-02 1.525215096169214857e-01 1.687030109267243783e-01 -4.044099903297353887e-02 6.196197183943859266e-02 -1.035718267791125163e-01 -1.766689960342298638e-01 -1.500264010293459183e-01 1.730014561531318940e-01 1.410091000226119419e-02 -1.319815421269208700e-01
8.552922326456947888e-02 -1.323447507622316777e-01 1.880428103197801307e-02 -4.309301225103561415e-03 5.127818199669995081e-02 6.586618734143759313e-02 -9.285729383422895158e-04 3.630125816890564933e-02 7.925800312056809419e-03 1.273775649339921323e-02 7.934508044123703141e-02 2.091788815176872859e-02 -5.653250469176685639e-02 -9.554980491828996003e-02 3.319431059556759989e-02 -1.708151445075485053e-01 5.927399735020645599e-02 -1.014955037367505086e-01 1.689327354163010220e-01 5.321897518313666031e-02 4.823053165317386232e-02 -5.666554058722151482e-02 1.001355784027640194e-01 -1.690632660981598867e-01 1.021824071972520787e-01 -1.621579986999563058e-02 1.023888934044781818e-01 7.931010821545218803e-02 -1.000657099142555628e-01 1.310187692176858487e-01
1.624999104505848724e-01 -1.287671691503120275e-01 -6.090198040815612834e-02 -1.246493434397345258e-02 1.006311263403688316e-01 2.122499630062648843e-02 4.276986079691274395e-02 -8.591129345342787826e-02 -1.243608503763996703e-01 -6.591090519683455440e-02 -1.755352910894197177e-02 7.963565692266329210e-02 -3.768631793865993146e-02 -7.281428661427270799e-02 1.118949066004952253e-01 -9.763667235144125878e-02 -4.114234290835232233e-02 5.218052459117039632e-02 4.868402154788741693e-02 -5.556753721697407084e-02 7.098514202401619289e-02 -4.971715243021305325e-02 -1.668207320023180895e-01 3.258870968986245231e-02 -3.441295840610189560e-02 -4.234961871879611844e-02 -1.323414570273269697e-01 8.800764434533780989e-02 1.745676831059712886e-01 6.084208243452599724e-02
-5.142511907384165332e-02 4.634651709015710080e-02 -1.070428620578472989e-01 5.071258807288929471e-02 -3.911483911616722015e-02 1.823542678517527382e-01 -1.814286282861545252e-01 9.248979159119835591e-02 5.919773469586744191e-02 -1.259420257318159542e-01 -1.781639280675105796e-01 2.664083085088775685e-03 1.058961277635615955e-01 1.499067614511931656e-01 -1.074093399140824412e-01 1.562612867814356932e-01 1.240830517658243620e-01 1.033040914682835931e-01 4.230114806149734563e-02 1.305487597671409726e-02 -1.651897912116724876e-01 -8.930675404663490982e-03 5.185377521380842014e-02 1.560778420222137530e-01 -7.287379642375023392e-02 1.528047509230159029e-01 -4.271616104807358927e-02 4.353152803924696668e-02 -1.084361793585945644e-01 2.050009775914595281e-02
9.037910743578150830e-02 -1.464521628629778492e-02 -1.178071899448305954e-01 3.203108643876620421e-02 -1.307278524485016857e-01 9.553126259205090010e-02 2.621820228963796934e-02 -7.254312714016904196e-02 -1.753050081710023356e-01 -5.579767733422828779e-02 1.740439248838470676e-01 1.626778309275177803e-01 7.706846191272669067e-02 -7.910472805982581013e-02 4.743937068038253137e-03 2.555321474651726585e-02 9.494695911216961826e-02 4.847408503675690317e-02 1.776301818252332687e-01 -1.867452705878244225e-03 1.380141283213900394e-01 -8.322782437159981228e-02 1.705028362615069182e-01 -4.194635835330817741e-02 5.346493000706271231e-02 1.474457801768033205e-01 1.182637241091471919e-01 -1.014722680679801398e-01 8.995908847147425502e-02 -1.486152342369655988e-01
-1.113521912269830882e-01 3.580242194603839440e-02 -1.780235686384678065e-02 -1.022618701701144689e-01 -3.090971397943072935e-02 -1.475087997780046845e-01 -5.183743508064684452e-02 -1.566374797390092111e-01 -1.174605817100105865e-01 7.989989075387914086e-02 7.858790355486167112e-02 1.204886073920973660e-02 1.422304162942236438e-01 5.230169764422155226e-02 1.235029549468754373e-01 5.704337338439037508e-02 1.313131707033168491e-02 1.193500037950809001e-01 -7.504853122332365289e-02 -1.455644879282945447e-01 -3.131904595506771610e-02 9.847886774307584856e-02 -1.175224727664799657e-01 1.215734609289264440e-01 4.464735402377256746e-02 -1.285987715589060609e-01 -1.044029967067459097e-01 -1.251684620605357234e-01 1.439213268261923251e-01 -3.799835569818175995e-02
-1.272124960311567243e-01 4.265172183175205967e-02 5.822463664211066647e-02 9.682502347956742361e-02 -1.695412705960474276e-01 5.249622870357322640e-02 -1.768303046217808983e-02 6.114678014438011677e-02 5.572195962140877312e-02 -5.367284940350176836e-02 -6.265297580798442900e-02 -1.133516781610648949e-01 -7.730896546310685180e-02 6.357281335349400375e-02 -6.432836802295478253e-03 -1.072037783583957710e-01 1.369864003576851397e-01 9.933619830677295481e-02 -4.706265760600325532e-02 -1.390761634084901888e-01 1.164365613718437303e-01 1.436356664179681830e-01 -1.482103480363509973e-01 -5.206948372100227845e-02 -2.080471710400639412e-02 1.234898400260725365e-01 -1.576242617990632547e-02 4.061529961440853154e-02 1.227665215456586745e-01 -1.576013778946627197e-01
-1.568707938983656125e-01 1.255976647888908948e-01 1.477283122421662598e-01 1.656694206733222152e-01 -1.804662949202736899e-01 -4.301781206319740120e-02 -1.141798183332501104e-01 9.345314420917809339e-02 2.911328858968134647e-02 -9.949519456916391946e-02 7.027399855560695352e-02 1.683225665299536988e-01 -8.552147940881413973e-03 6.712906456909431552e-02 -5.865129822736773330e-02 6.564090949752546429e-03 2.742202535519190978e-02 1.209798366563100691e-01 8.340950955962987690e-02 -1.628085048844665206e-01 1.171251213238631850e-01 3.466978237578239447e-02 -1.609644756357794249e-01 1.264714999351040925e-01 1.008810705895491489e-01 1.253157596096809157e-01 8.936742374181685933e-02 -1.595689026189021920e-01 1.156157548681636948e-01 4.336478829910603294e-02
-1.343390560313494075e-01 -7.502745125365214984e-02 -3.247273479619088715e-02 6.514436451019584018e-02 -7.179137079364340812e-02 3.706293018668034567e-02 -4.702423039554511769e-02 1.533591987491753350e-01 -1.072616444030871988e-02 9.225475105708398627e-02 1.475643294710006492e-01 -3.894822286936944211e-02 -1.004028993897384536e-01 -1.784402983835518819e-01 8.484141194210720327e-02 1.356332997497724790e-01 -1.811111222342299543e-01 -6.056226488030030247e-02 -1.762924452458602964e-01 1.472256255135145353e-01 1.078265284749761327e-01 -8.922442896333511453e-02 1.215680152205029785e-01 -1.259446214961804089e-01 7.614665617569093582e-03 -1.062599149073492205e-01 1.029331439541175258e-01 -1.299917922105419954e-01 1.774080857514349074e-01 1.683510655837762438e-01
1.037049606345975261e-01 7.715906359089888533e-02 6.075333147727359634e-02 -1.650466717173650413e-02 -1.418656533618760651e-01 -1.034732467811443485e-01 2.546334361735349064e-02 1.463333750980810033e-01 1.647181715204051877e-01 -8.487168328079870358e-03 1.645344045401512245e-01 -7.531292617223299402e-02 1.650344492383939154e-01 -3.582029743345389872e-02 -7.213728537729635626e-02 -9.688169977484174800e-02 5.760660702119464044e-03 1.597975385550240157e-01 6.201345635493699798e-04 1.406829427136377653e-01 -5.302232998099463274e-02 1.579996058723254215e-01 -1.765989033971261113e-01 1.802031983392665682e-01 -2.730482231077133518e-02 5.050155525475901255e-03 1.333215465434694491e-01 1.546107940911484917e-03 -1.582310660271163683e-01 -8.033077640681098031e-03
-2.836148056243440949e-02 -9.332044971616908213e-02 -4.904902016943277904e-02 9.683441580081812716e-02 -1.398274110678064397e-01 1.689079412617233711e-01 -1.162844773985772934e-01 -1.782554142799093744e-01 1.472671057203302769e-01 1.729193220244970852e-01 -3.152029978039556229e-02 -5.288752876324065259e-03 8.199539094469296407e-02 -7.310093441284422344e-02 1.356706450111865025e-01 1.850910673783681681e-02 1.880525999446967800e-01 5.008476789804337803e-02 1.435268937457041989e-02 -9.943937661135612838e-02 1.332166557334540091e-01 1.249495349673864913e-01 -1.114088968203373747e-01 -1.012672947513698629e-01 -1.576552542939436974e-01 -7.236134368735740174e-02 2.524195750581652645e-02 -4.621612752907213600e-02 1.300204260321481719e-03 9.596925152967894501e-02

-1.690870371955530138e-01 7.769943993856377740e-02 1.569552574061245098e-01 -1.721248357715458033e-01 4.630727930096695255e-02 -1.016632147343031756e-01 -1.555351893898124782e-01 1.755573010119299004e-01 7.946445297518438255e-02 6.493422722116132251e-02 -1.553572353761096536e-01 -3.866110007153152756e-02 8.530748499561435771e-02 5.136767083958538455e-02 1.733048245865820014e-01
-9.372941898204054101e-02 2.800632157308598214e-02 -5.366832055866675028e-02 1.356130957063143572e-01 9.559448316595296757e-02 2.058781344326100163e-03 1.460378018309368975e-01 -1.716852960837261799e-01 9.734370572713378633e-02 -2.931581123280429038e-02 1.041591703484993914e-01 2.544140510066927180e-02 5.243388567979039537e-04 -1.217299517715638157e-01 5.797925681508609569e-02
1.473927117812758036e-01 1.738295717323375400e-01 1.807534149998143158e-01 -5.667451979060229850e-02 -9.351411124194874969e-02 -8.196771654215949388e-02 -1.445365625623466488e-01 7.096794499227886133e-02 1.250059331581188093e-01 -1.374825395706426312e-01 3.995772285445316208e-02 7.847685782505557650e-02 1.102314217023913079e-01 1.550042007289219835e-02 7.490704831108067896e-02
-1.476736545523022748e-01 1.780704938209674015e-01 1.653537269309818813e-01 -1.799061733306298316e-01 8.945034302687741856e-02 -1.552018630429957517e-02 6.754086725273229785e-02 -8.268756861284007331e-02 -1.561263449131154897e-02 -1.696887066524889742e-01 -2.572471188756862009e-02 -2.146497190811105099e-02 1.471740266084560489e-01 -8.686294562939077257e-02 6.589951295164883649e-02
1.023977557624439622e-01 -3.281659727142556809e-03 -1.697616753720365412e-01 1.202227040050144052e-01 5.076048210283158613e-03 -4.799634267466239279e-02 8.985455247589840821e-02 1.202349865603399431e-01 -9.706206142398992112e-03 1.623996771318475252e-01 1.672129848938114782e-01 -1.333484505780537233e-01 3.672876752551373220e-02 1.757646315918818258e-01 -3.671926882652140622e-02
5.753273334947172149e-03 7.155983910178578822e-02 4.692022977003954681e-02 1.343313720349252893e-01 6.770751291780487124e-02 1.044000398188774936e-01 -1.644886778431736141e-01 -1.276240376465334440e-02 -1.779448488608583734e-01 1.001259517855996595e-01 2.955042856694491474e-02 1.325401210022531251e-01 -1.253962884014925006e-01 -1.343419522812956957e-01 -3.233414080908768307e-02
-1.131767216664880255e-01 2.022719908375814613e-01 9.214812338224531718e-02 -4.934866027375301584e-02 1.350625176155216267e-01 -2.541981156979303616e-02 1.322414589714875632e-01 -1.428789577877168371e-01 -1.657736808303675591e-01 4.563952163623703068e-02 -1.648151879225307204e-01 -7.926012157240579226e-02 -1.647111557715938424e-01 8.551172342656190861e-02 -6.133529558364730211e-02
9.435023762406956338e-02 1.681084481398663621e-01 1.323642871045228597e-01 -2.822428588780375239e-03 -7.199325982108789601e-02 -2.106358269501277039e-02 -1.666876580785340289e-01 -1.047707529104702634e-01 3.722267774359629133e-02 -1.506814640811231232e-01 -1.653501906190477100e-01 -1.673273372151879157e-01 -6.068821895188375448e-02 -1.657848012955992767e-01 -1.217757761827608504e-01
1.700309530380551271e-01 -4.278893209907283501e-02 1.666850189089129075e-01 -9.658465627607352999e-02 -1.815872086471541080e-01 1.680557597739942843e-02 4.601343520978403573e-03 4.347942502738762899e-02 -1.220019179615770416e-01 5.884900527955694120e-03 -1.342715783145657094e-01 -9.086645906761969815e-02 -1.742184782361901052e-01 1.533451046991487210e-01 2.931989863210884145e-02
-1.465464597565380167e-01 1.224006202426803636e-01 9.477075258395190396e-03 -1.402595100873769707e-01 -3.979148499517046710e-03 -1.187526750077645687e-01 8.978203785092371547e-02 7.573118693146489201e-03 1.086991525829111988e-01 -7.993191627349964523e-02 3.514614454465579685e-02 -1.198501114601579209e-01 7.601552427480919027e-02 -6.651852051129514276e-02 -7.627111762668890849e-02
-1.567535945511944473e-01 2.045398036101339356e-01 1.441507792497195573e-01 1.136830213510687942e-01 -1.308190907757528776e-01 -1.057179667350399421e-01 1.339734246258446893e-01 7.348245552706610118e-02 8.319188172586011731e-02 -5.955022420901244550e-04 1.027275144758283409e-01 -8.824456442241700345e-04 -1.796093347037821530e-01 -1.705662933314635310e-01 2.061024133474885847e-02
1.367794491831390846e-01 -6.695371405428240941e-02 1.441287702899313461e-01 -1.292457521494239092e-01 1.453350033139961250e-01 9.615329698559964278e-02 8.716184933808583668e-02 1.563201994630717684e-01 2.928480779000764561e-02 -5.561306519191438341e-04 9.860471874691778549e-02 1.102620942920880948e-01 6.548895722981754042e-02 -1.217933523017473152e-01 6.316511153434857528e-02
-1.135261074469926523e-01 -1.118109672693415879e-01 -1.281877794820379390e-01 -1.673029076718485775e-01 -4.492676037324293964e-02 9.820884912348128160e-02 -2.793764060206373537e-02 1.631788994863337117e-01 6.029764052705170047e-02 1.197307422693394685e-01 1.753812362991743479e-01 1.071951581411541288e-01 8.848572543910354637e-02 1.740050487443022820e-01 1.184527135791732522e-01
1.212471384023124099e-01 3.235029388038582199e-02 1.293822096589849757e-01 -2.102793989390784046e-01 -3.177608121441293388e-03 -2.104479789836932388e-02 8.042111363749039621e-02 1.680048349605794411e-01 -1.511093033852834999e-01 -3.214936464071277422e-02 1.033735267047804496e-01 -5.911606277104448220e-02 -1.339051722928413513e-01 2.302033152434811714e-01 8.873005869816089075e-02
-1.553947350767374003e-01 7.624311560873493765e-02 -3.242220702693281165e-02 -7.438125111696705649e-02 -1.703402154570953508e-01 7.785364675957415215e-02 -1.022147798231734656e-01 1.009346723250931638e-01 2.231486437953338411e-02 1.129344601662192332e-01 -1.661190488235022855e-01 1.632595603981740473e-01 6.793231926271850463e-02 -5.588804233948155287e-02 1.444742712510492244e-01
-1.713187973951137977e-01 -1.233766825023078495e-01 1.200237036304606236e-01 9.885710128705997579e-02 -1.684662442957060302e-01 3.355784407942852959e-02 -1.543353907359785449e-01 1.723045816248893261e-02 -6.385453465058056610e-02 -1.004132329653389388e-01 -1.193851834345394103e-01 -7.696779067053663437e-02 1.536139748982800479e-01 1.702448646786858255e-01 1.009862225621676879e-01
-2.621748007065577077e-02 -2.166698128340147633e-01 -1.740826837925099971e-02 -8.452811993129680235e-02 -7.640166748880258471e-03 -9.899325218151264205e-02 -4.514538245294344443e-02 1.591035676222296580e-01 1.267852848000078358e-01 1.077644313965743089e-01 1.170861054251945560e-01 -4.836267006242400690e-03 -1.122031319415876249e-01 -9.243820254164550332e-02 2.212668511270399901e-02
-2.761575038702144408e-02 3.751496570649948820e-02 -7.014454641054790329e-02 -5.416243094414888506e-03 1.728344106757958576e-01 6.731051403042064181e-03 -7.753399190144601161e-02 1.230201369320881866e-01 2.967114717475265173e-02 1.495110611462893424e-01 -1.454030239757229670e-01 -1.810822748983667296e-01 7.943481705746367749e-02 1.106338925090668557e-01 8.358413644921308672e-02
4.025590118831430704e-03 -7.691510037962272228e-02 -1.166042411374160759e-01 1.869501720101209852e-01 1.295056636865882238e-01 -3.914097117476510873e-02 -1.239370225187109986e-02 -1.553344028213208550e-01 -8.895073020476408632e-03 -1.842042099786756204e-01 -1.180409829451802978e-01 1.332511785933383486e-01 -8.385365668379099469e-02 -1.821941059262499607e-01 -8.626570912010317338e-02
1.613701642441680850e-01 1.986771643757105632e-01 -1.461926283467456789e-01 2.056155830411779059e-02 1.435379448995033613e-01 -1.799888531043531970e-01 1.717328711001288588e-01 1.210913605108791119e-01 7.673127795905339277e-02 -1.340391199268585742e-01 1.463903383311841722e-01 -5.847805265637934929e-02 1.725871394047226726e-01 3.145192876611698635e-02 -1.582645185531594556e-01
1.548638404301378169e-01 1.119265780312874853e-01 5.982096951661165091e-02 -3.562416624363173856e-02 -1.179056516054084597e-01 -1.218190473764910881e-01 1.839685864358102385e-01 -1.574938406385229250e-01 -1.804209869727007795e-02 -1.311805167582491272e-01 1.744793027694470644e-01 -1.223928219634718567e-01 -9.046126585594252423e-02 4.632476237745076358e-02 -1.436078828364723559e-01
-1.615344421167285924e-02 -2.756920317070896131e-02 -1.281214206333073924e-01 1.651434358636786337e-01 -1.693422441234001541e-01 -1.533684732859735833e-01 6.163695060997006342e-02 -1.795644132875189036e-01 5.289990550221321947e-02 -7.679122468114196742e-02 9.608628269969297919e-02 6.698393821804547732e-02 1.343490358861878023e-02 1.746739463891641142e-01 -1.510912944895622138e-03
-1.786651703222772447e-01 -7.144093657939706854e-03 -1.648255607830929892e-01 -1.180566659023489368e-01 5.965144003627848718e-02 -9.296831224426123710e-03 -9.358884281184545739e-02 -8.257369576869100225e-02 -9.702590827118880851e-03 -5.633117555391241316e-02 7.428373428570173541e-03 6.277886946040495131e-02 4.508182295679478632e-03 1.734953371023480462e-01 1.804747976904440554e-01
7.787409182291026022e-02 7.235956026362114213e-02 8.379132657445959032e-02 -9.297415290299113066e-02 1.251937444147546152e-01 -1.202214117877963007e-01 -1.124573543310863621e-01 -7.215012001910460493e-02 -5.258049736210690384e-02 2.729176867454652725e-02 -8.433066898591157559e-03 3.461220272021115624e-02 3.299432911465416396e-02 -1.682839044162146025e-02 -1.534852645537602422e-01
6.386845855417853934e-02 -3.308158033299416628e-02 -4.727774234773169520e-02 3.929942276042354410e-02 -2.337055019178248955e-02 1.353809673097840782e-01 1.339248779259297195e-01 1.100260937471889480e-02 -1.722369133013112175e-01 -1.350610007476270302e-01 -1.067457228880213660e-01 -2.421149274996735670e-02 -1.149399530064719038e-01 7.313411396192839864e-02 -1.112972217303961758e-01
1.397939997937556744e-01 1.424730774115691434e-01 1.169039078396453823e-01 -1.293640712242184743e-01 1.003718579039773601e-01 6.681243877204770532e-02 -2.777799243562146039e-02 4.011107972436107894e-02 1.129016727191349684e-01 1.796978240388578951e-01 6.933342210395442018e-02 -1.406519519926815454e-01 1.780358581242750260e-01 1.077089646467747769e-01 4.935630829307471185e-02
-1.281024505355193577e-01 -1.833732696693892994e-01 1.498636678658195505e-02 -1.829951316182310550e-01 -1.582268350235411236e-01 -8.632749256027073825e-02 1.204443857150719471e-01 1.399942785731930484e-01 1.133142966888550235e-01 1.086869576132207388e-01 -1.470637624498184748e-01 -4.681655445731514736e-02 1.668346878790261389e-01 1.670728780847602624e-01 9.059214337336184142e-02
9.937932828637274785e-02 1.240295440384058395e-01 1.149223902907048206e-01 1.470782936177096323e-01 -1.354459879474678025e-02 3.750304002898082606e-02 1.026101492707756219e-01 1.454615195671405369e-02 -6.224992009666721789e-03 -4.578315355029561468e-02 -5.281195189752209418e-02 -1.255786823776199046e-01 1.705655544193031281e-01 -1.399587968903462376e-01 -2.215965100411746228e-02
1.002586924472428503e-01 -1.703603762088848617e-01 8.295846767382154818e-02 1.787858904150897987e-01 1.206142902030494096e-01 -1.323383958502308833e-01 5.873758001427319825e-02 2.849472304322237318e-02 -1.400145084005761931e-01 1.710474656219196365e-01 -6.704247785639838586e-02 1.386776877255158635e-01 -4.461506557307201581e-02 -1.152278269085016127e-01 -5.436713780716917466e-02
-1.430682771849591806e-01 4.993368427974820278e-02 -6.378036001256434662e-02 -1.399420984856236394e-01 1.692355230050942086e-02 8.910230992765504066e-02 -2.830645429496754170e-02 -7.598242284141451530e-02 1.606247331635801134e-01 1.099830023401139473e-01 4.430432374500513359e-02 -3.801175605469408331e-02 1.223077001441313649e-01 -8.649898762944698005e-02 5.021414343343287914e-03

2.126193198127607764e-01 9.202858223964770212e-02 4.841388124454663877e-02 2.350349758887038398e-01 2.382465776240059452e-01 1.726047559229452744e-01 1.625153935646133641e-01
-1.619388353460043395e-01 5.284918812107840952e-02 3.629204100676264311e-01 5.500181092612238531e-02 -2.538599666475992445e-01 -5.165465320123710513e-02 -1.522913793466045829e-01
-1.445446384463231482e-01 -2.177927330640355152e-01 -8.833435577427457830e-02 -6.412150842844604147e-03 5.396185632627681361e-02 2.486465462231666756e-01 -3.166892514672189907e-02
-7.802365952837594758e-03 2.067273688313501223e-01 2.577054492188533552e-01 8.254349766292411184e-02 6.833344662650171764e-02 1.081185151468025268e-01 6.401452891848181947e-02
-1.896841533307011274e-01 -4.253452452739942685e-02 6.012643363847443301e-02 -3.087598079341800916e-02 1.581922332198174297e-01 -4.339859278756497130e-02 -2.357861139376054571e-01
7.098801800279778973e-02 1.759471559871167712e-01 -1.420667666737211732e-02 -1.632310071064530521e-01 -2.029055011200448233e-01 4.391106095557064520e-02 2.156852991716052825e-01
1.507137606328816659e-01 -2.241601420220150076e-01 -2.816367127736219347e-03 -1.100150454594130134e-01 5.011688693016225216e-02 6.808623037083390284e-02 -1.813298768397022809e-01
-7.415225119806592713e-02 1.126666005528918907e-01 3.679029739802322507e-02 1.704726805609190488e-01 2.403495731877599850e-01 2.192255844579901192e-01 -5.659883706958460797e-02
-5.662580809732456477e-02 1.663724543392653965e-01 1.980102501528079872e-01 -2.182241591423773885e-02 -5.853204479293834528e-02 2.404176971498785398e-01 1.922777403680856478e-01
-1.176367686440136368e-02 1.910344974765912640e-01 -2.934792335514403439e-01 -4.754386830696732957e-02 -1.073363192638831509e-01 -5.630478767808754642e-02 4.680320805824041835e-02
-2.405124940443202353e-01 1.244155691411992781e-01 -1.895651701373210207e-01 6.976790556363755835e-02 -2.286749957181729576e-01 -2.511951377746829417e-01 7.711247189941333562e-03
-2.194478879692114137e-01 5.045014108962419391e-02 -2.398584843153821478e-01 1.586834198194123427e-02 -1.159419623765697988e-01 -9.271723212120153157e-02 -1.260126582640691273e-01
1.229631791354462295e-01 -8.865073517076046961e-02 5.021884119596394663e-02 -1.591123431881477923e-01 -2.143157716447782191e-01 -1.856277110312946552e-02 -1.404527478519203287e-02
7.030014284836773319e-02 -2.583013421990515424e-01 -2.632444554925572056e-01 -1.907255207677149289e-01 5.696651125211404237e-02 -2.299825616378389781e-01 -5.096388045780704534e-02
2.237078580862401356e-01 9.621617398923697217e-02 8.417729494337185259e-02 -5.575079948745594732e-02 -2.103278768860819825e-01 1.097438618268965771e-01 -2.471643550216918173e-01

-2.415148395047692076e-01 -1.822186493210322111e-01 -1.006561510201099338e-02
-1.877240928826030830e-01 -8.544906052156818477e-02 3.047143572559272706e-01
-4.340737004394410459e-01 2.983825024796646352e-01 1.005941882067707960e-01
-1.928344255297639032e-01 -6.485502616989394231e-02 3.119135919885178687e-01
-5.438792309049540058e-02 -2.949862883392825319e-01 1.440770766956966376e-01
1.530619802380724925e-01 -3.629508601675897062e-01 -1.683365221336528827e-01
-2.497020288586280778e-01 -2.394208906871450326e-01 -3.501310516453853272e-01

1.039297603789263308e-01
6.859480407126970769e-02
2.430335363129768333e-01
-6.232765954001984882e-02
-2.034150147130881492e-01
-2.841621194197513356e-02
-2.148724090238647300e-01
2.011332888711110656e-01
1.897597359468700395e-01
1.733570846235470975e-01
2.198895454932795479e-01
1.960841367745806973e-01
3.140140508438291067e-02
3.042709140522746603e-02
2.680180967398537173e-01
-1.880177309896552407e-01
2.226135880417930424e-01
-1.096377495876513786e-01
1.073426317164835331e-01
-1.255237028991364190e-01
1.577177828213262648e-02
-2.327825321471172493e-01
6.396916780903920408e-02
1.275365035771751920e-01
2.269274837529609290e-01
5.130090320192092629e-02
-2.219413004678916501e-01
1.745305367058030688e-01
1.175681236935279539e-01
-8.315102319543622722e-02

-1.611124648134907092e-02
-3.295034413995726746e-02
-6.387398186290171864e-02
1.725727773507959029e-01
6.763565116292052926e-02
-1.436952010013154216e-02
1.025855155603496160e-01
1.026750934531266007e-01
-6.153999067736449363e-02
-1.550330633626763877e-01
1.195955659419067202e-01
1.377269336564080904e-01
-1.707783541688486506e-01
-2.639806581748175077e-02
1.749873507950617246e-01
4.406872118130115978e-02
-8.299584614864007059e-02
-1.197140845065216147e-01
5.445888179259503886e-02
1.851098361963265937e-01
-5.680264762133087342e-02
1.400733704260320733e-01
3.293165394361595487e-04
1.651555173350140182e-01
1.503733507393272828e-01
2.415693809578076622e-04
1.693127687038958190e-02
-1.299621487050845120e-03
-1.809421562769266550e-02
2.414489456381763155e-02

-5.048034764653284295e-02
1.151662596534236693e-01
7.157918523929944488e-02
-7.505786339475425950e-02
-4.578540041503247060e-02
1.137593473741826122e-01
1.593109212720389412e-01
-1.334637256346991596e-01
-3.463497895036322938e-02
-3.541144579083119887e-02
-1.590416019887271326e-01
1.782527576823576543e-01
-1.469324317302709015e-01
9.389838925350806054e-02
4.243424665274173752e-02

3.877128408463270670e-02
7.729331977600470416e-02
4.592134069926787771e-02
1.402043807869122749e-01
4.521638656640527415e-02
1.665962009009181732e-01
1.976962035216201785e-01

3.227190595378875426e-01
-3.333994091666416804e-01
8.247749425876332863e-02
